<?xml version="1.0" encoding="UTF-8" standalone="yes"?>
<PMML xmlns="http://www.dmg.org/PMML-4_3" xmlns:data="http://jpmml.org/jpmml-model/InlineTable" version="4.3">
	<Header>
		<Application name="JPMML-SparkML" version="1.5.7"/>
		<Timestamp>2020-03-25T12:23:29Z</Timestamp>
	</Header>
	<DataDictionary>
		<DataField name="Adjusted" optype="categorical" dataType="string">
			<Value value="0"/>
			<Value value="1"/>
		</DataField>
		<DataField name="Employment" optype="categorical" dataType="string">
			<Value value="Private"/>
			<Value value="Consultant"/>
			<Value value="PSLocal"/>
			<Value value="SelfEmp"/>
			<Value value="PSState"/>
			<Value value="PSFederal"/>
			<Value value="Volunteer"/>
		</DataField>
		<DataField name="Education" optype="categorical" dataType="string">
			<Value value="HSgrad"/>
			<Value value="College"/>
			<Value value="Bachelor"/>
			<Value value="Master"/>
			<Value value="Vocational"/>
			<Value value="Associate"/>
			<Value value="Yr11"/>
			<Value value="Yr10"/>
			<Value value="Yr7t8"/>
			<Value value="Yr9"/>
			<Value value="Doctorate"/>
			<Value value="Professional"/>
			<Value value="Yr5t6"/>
			<Value value="Yr12"/>
			<Value value="Preschool"/>
			<Value value="Yr1t4"/>
		</DataField>
		<DataField name="Marital" optype="categorical" dataType="string">
			<Value value="Married"/>
			<Value value="Absent"/>
			<Value value="Divorced"/>
			<Value value="Unmarried"/>
			<Value value="Widowed"/>
			<Value value="Married-spouse-absent"/>
		</DataField>
		<DataField name="Occupation" optype="categorical" dataType="string">
			<Value value="Executive"/>
			<Value value="Professional"/>
			<Value value="Clerical"/>
			<Value value="Repair"/>
			<Value value="Service"/>
			<Value value="Sales"/>
			<Value value="Machinist"/>
			<Value value="Transport"/>
			<Value value="Cleaner"/>
			<Value value="Farming"/>
			<Value value="Support"/>
			<Value value="Protective"/>
			<Value value="Home"/>
			<Value value="Military"/>
		</DataField>
		<DataField name="Gender" optype="categorical" dataType="string">
			<Value value="Male"/>
			<Value value="Female"/>
		</DataField>
		<DataField name="Age" optype="continuous" dataType="integer"/>
		<DataField name="Income" optype="continuous" dataType="double"/>
		<DataField name="Deductions" optype="continuous" dataType="double"/>
		<DataField name="Hours" optype="continuous" dataType="integer"/>
	</DataDictionary>
	<TransformationDictionary/>
	<MiningModel functionName="classification" algorithmName="XGBoost (GBTree)" x-mathContext="float">
		<MiningSchema>
			<MiningField name="Adjusted" usageType="target"/>
			<MiningField name="Employment"/>
			<MiningField name="Education"/>
			<MiningField name="Marital"/>
			<MiningField name="Occupation"/>
			<MiningField name="Gender"/>
			<MiningField name="Age"/>
			<MiningField name="Income"/>
			<MiningField name="Deductions"/>
			<MiningField name="Hours"/>
		</MiningSchema>
		<Output>
			<OutputField name="pmml(prediction)" optype="categorical" dataType="string" isFinalResult="false"/>
			<OutputField name="prediction" optype="continuous" dataType="double" feature="transformedValue">
				<MapValues outputColumn="data:output" dataType="double">
					<FieldColumnPair field="pmml(prediction)" column="data:input"/>
					<InlineTable>
						<row>
							<data:input>0</data:input>
							<data:output>0</data:output>
						</row>
						<row>
							<data:input>1</data:input>
							<data:output>1</data:output>
						</row>
					</InlineTable>
				</MapValues>
			</OutputField>
		</Output>
		<Segmentation multipleModelMethod="modelChain" x-missingPredictionTreatment="returnMissing">
			<Segment id="1">
				<True/>
				<MiningModel functionName="regression" x-mathContext="float">
					<MiningSchema>
						<MiningField name="Employment"/>
						<MiningField name="Education"/>
						<MiningField name="Marital"/>
						<MiningField name="Occupation"/>
						<MiningField name="Gender"/>
						<MiningField name="Age"/>
						<MiningField name="Income"/>
						<MiningField name="Deductions"/>
						<MiningField name="Hours"/>
					</MiningSchema>
					<Output>
						<OutputField name="xgbValue" optype="continuous" dataType="float" isFinalResult="false"/>
					</Output>
					<LocalTransformations>
						<DerivedField name="float(Age)" optype="continuous" dataType="float">
							<FieldRef field="Age"/>
						</DerivedField>
						<DerivedField name="float(Income)" optype="continuous" dataType="float">
							<FieldRef field="Income"/>
						</DerivedField>
						<DerivedField name="float(Deductions)" optype="continuous" dataType="float">
							<FieldRef field="Deductions"/>
						</DerivedField>
						<DerivedField name="float(Hours)" optype="continuous" dataType="float">
							<FieldRef field="Hours"/>
						</DerivedField>
					</LocalTransformations>
					<Segmentation multipleModelMethod="sum">
						<Segment id="1">
							<True/>
							<TreeModel functionName="regression" missingValueStrategy="defaultChild" splitCharacteristic="binarySplit" x-mathContext="float">
								<MiningSchema>
									<MiningField name="Employment"/>
									<MiningField name="Education"/>
									<MiningField name="Marital"/>
									<MiningField name="Occupation"/>
									<MiningField name="Gender"/>
									<MiningField name="float(Age)"/>
									<MiningField name="float(Income)"/>
									<MiningField name="float(Deductions)"/>
									<MiningField name="float(Hours)"/>
								</MiningSchema>
								<Node id="0" defaultChild="1">
									<True/>
									<Node id="1" defaultChild="4">
										<SimplePredicate field="Marital" operator="notEqual" value="Married"/>
										<Node id="3" defaultChild="7">
											<SimplePredicate field="float(Deductions)" operator="lessThan" value="1564.0"/>
											<Node id="7" defaultChild="13">
												<SimplePredicate field="Education" operator="notEqual" value="Professional"/>
												<Node id="13" defaultChild="25">
													<SimplePredicate field="Education" operator="notEqual" value="Doctorate"/>
													<Node id="25" defaultChild="37">
														<SimplePredicate field="Education" operator="notEqual" value="Bachelor"/>
														<Node id="37" score="-0.5718519">
															<SimplePredicate field="Education" operator="notEqual" value="Master"/>
														</Node>
														<Node id="38" score="-0.3714286">
															<SimplePredicate field="Education" operator="equal" value="Master"/>
														</Node>
													</Node>
													<Node id="26" defaultChild="40">
														<SimplePredicate field="Education" operator="equal" value="Bachelor"/>
														<Node id="39" score="-0.4689076">
															<SimplePredicate field="float(Hours)" operator="lessThan" value="49.0"/>
														</Node>
														<Node id="40" score="-0.23076925">
															<SimplePredicate field="float(Hours)" operator="greaterOrEqual" value="49.0"/>
														</Node>
													</Node>
												</Node>
												<Node id="14" defaultChild="28">
													<SimplePredicate field="Education" operator="equal" value="Doctorate"/>
													<Node id="27" score="-0.06666667">
														<SimplePredicate field="float(Age)" operator="lessThan" value="43.0"/>
													</Node>
													<Node id="28" score="0.06666667">
														<SimplePredicate field="float(Age)" operator="greaterOrEqual" value="43.0"/>
													</Node>
												</Node>
											</Node>
											<Node id="8" defaultChild="15">
												<SimplePredicate field="Education" operator="equal" value="Professional"/>
												<Node id="15" score="-0.3">
													<SimplePredicate field="Gender" operator="notEqual" value="Male"/>
												</Node>
												<Node id="16" score="0.27272728">
													<SimplePredicate field="Gender" operator="equal" value="Male"/>
												</Node>
											</Node>
										</Node>
										<Node id="4" score="0.24000001">
											<SimplePredicate field="float(Deductions)" operator="greaterOrEqual" value="1564.0"/>
										</Node>
									</Node>
									<Node id="2" defaultChild="5">
										<SimplePredicate field="Marital" operator="equal" value="Married"/>
										<Node id="5" defaultChild="9">
											<SimplePredicate field="Occupation" operator="notEqual" value="Executive"/>
											<Node id="9" defaultChild="18">
												<SimplePredicate field="Occupation" operator="notEqual" value="Professional"/>
												<Node id="17" defaultChild="30">
													<SimplePredicate field="float(Deductions)" operator="lessThan" value="1848.0"/>
													<Node id="29" defaultChild="41">
														<SimplePredicate field="float(Age)" operator="lessThan" value="37.0"/>
														<Node id="41" score="-0.4094118">
															<SimplePredicate field="Education" operator="notEqual" value="College"/>
														</Node>
														<Node id="42" score="-0.15">
															<SimplePredicate field="Education" operator="equal" value="College"/>
														</Node>
													</Node>
													<Node id="30" defaultChild="44">
														<SimplePredicate field="float(Age)" operator="greaterOrEqual" value="37.0"/>
														<Node id="43" score="-0.21975309">
															<SimplePredicate field="float(Hours)" operator="lessThan" value="42.0"/>
														</Node>
														<Node id="44" score="-0.019047622">
															<SimplePredicate field="float(Hours)" operator="greaterOrEqual" value="42.0"/>
														</Node>
													</Node>
												</Node>
												<Node id="18" score="0.45882356">
													<SimplePredicate field="float(Deductions)" operator="greaterOrEqual" value="1848.0"/>
												</Node>
											</Node>
											<Node id="10" defaultChild="19">
												<SimplePredicate field="Occupation" operator="equal" value="Professional"/>
												<Node id="19" defaultChild="32">
													<SimplePredicate field="Education" operator="notEqual" value="College"/>
													<Node id="31" score="-0.20000002">
														<SimplePredicate field="float(Hours)" operator="lessThan" value="20.999998"/>
													</Node>
													<Node id="32" defaultChild="46">
														<SimplePredicate field="float(Hours)" operator="greaterOrEqual" value="20.999998"/>
														<Node id="45" score="0.3512195">
															<SimplePredicate field="float(Hours)" operator="lessThan" value="60.0"/>
														</Node>
														<Node id="46" score="0.07826087">
															<SimplePredicate field="float(Hours)" operator="greaterOrEqual" value="60.0"/>
														</Node>
													</Node>
												</Node>
												<Node id="20" score="-0.26666668">
													<SimplePredicate field="Education" operator="equal" value="College"/>
												</Node>
											</Node>
										</Node>
										<Node id="6" defaultChild="12">
											<SimplePredicate field="Occupation" operator="equal" value="Executive"/>
											<Node id="11" defaultChild="21">
												<SimplePredicate field="float(Age)" operator="lessThan" value="31.999998"/>
												<Node id="21" score="-0.3176471">
													<SimplePredicate field="Education" operator="notEqual" value="Bachelor"/>
												</Node>
												<Node id="22" score="0.16363637">
													<SimplePredicate field="Education" operator="equal" value="Bachelor"/>
												</Node>
											</Node>
											<Node id="12" defaultChild="23">
												<SimplePredicate field="float(Age)" operator="greaterOrEqual" value="31.999998"/>
												<Node id="23" defaultChild="33">
													<SimplePredicate field="Employment" operator="notEqual" value="Consultant"/>
													<Node id="33" defaultChild="48">
														<SimplePredicate field="Education" operator="notEqual" value="HSgrad"/>
														<Node id="47" score="0.085714296">
															<SimplePredicate field="float(Income)" operator="lessThan" value="14925.85"/>
														</Node>
														<Node id="48" score="0.3923077">
															<SimplePredicate field="float(Income)" operator="greaterOrEqual" value="14925.85"/>
														</Node>
													</Node>
													<Node id="34" defaultChild="49">
														<SimplePredicate field="Education" operator="equal" value="HSgrad"/>
														<Node id="49" score="0.28">
															<SimplePredicate field="Employment" operator="notEqual" value="Private"/>
														</Node>
														<Node id="50" score="-0.050000004">
															<SimplePredicate field="Employment" operator="equal" value="Private"/>
														</Node>
													</Node>
												</Node>
												<Node id="24" defaultChild="36">
													<SimplePredicate field="Employment" operator="equal" value="Consultant"/>
													<Node id="35" defaultChild="52">
														<SimplePredicate field="float(Income)" operator="lessThan" value="42357.0"/>
														<Node id="51" score="-0.06666667">
															<SimplePredicate field="float(Age)" operator="lessThan" value="46.0"/>
														</Node>
														<Node id="52" score="0.06666667">
															<SimplePredicate field="float(Age)" operator="greaterOrEqual" value="46.0"/>
														</Node>
													</Node>
													<Node id="36" score="-0.27272728">
														<SimplePredicate field="float(Income)" operator="greaterOrEqual" value="42357.0"/>
													</Node>
												</Node>
											</Node>
										</Node>
									</Node>
								</Node>
							</TreeModel>
						</Segment>
						<Segment id="2">
							<True/>
							<TreeModel functionName="regression" missingValueStrategy="defaultChild" splitCharacteristic="binarySplit" x-mathContext="float">
								<MiningSchema>
									<MiningField name="Employment"/>
									<MiningField name="Education"/>
									<MiningField name="Marital"/>
									<MiningField name="Occupation"/>
									<MiningField name="float(Age)"/>
									<MiningField name="float(Income)"/>
									<MiningField name="float(Deductions)"/>
									<MiningField name="float(Hours)"/>
								</MiningSchema>
								<Node id="0" defaultChild="1">
									<True/>
									<Node id="1" defaultChild="4">
										<SimplePredicate field="Marital" operator="notEqual" value="Married"/>
										<Node id="3" defaultChild="7">
											<SimplePredicate field="float(Deductions)" operator="lessThan" value="1564.0"/>
											<Node id="7" defaultChild="11">
												<SimplePredicate field="Education" operator="notEqual" value="Professional"/>
												<Node id="11" defaultChild="19">
													<SimplePredicate field="Education" operator="notEqual" value="Doctorate"/>
													<Node id="19" defaultChild="31">
														<SimplePredicate field="Education" operator="notEqual" value="Bachelor"/>
														<Node id="31" score="-0.43984908">
															<SimplePredicate field="Education" operator="notEqual" value="Associate"/>
														</Node>
														<Node id="32" score="-0.267645">
															<SimplePredicate field="Education" operator="equal" value="Associate"/>
														</Node>
													</Node>
													<Node id="20" defaultChild="34">
														<SimplePredicate field="Education" operator="equal" value="Bachelor"/>
														<Node id="33" score="-0.3800543">
															<SimplePredicate field="float(Age)" operator="lessThan" value="41.0"/>
														</Node>
														<Node id="34" score="-0.17119537">
															<SimplePredicate field="float(Age)" operator="greaterOrEqual" value="41.0"/>
														</Node>
													</Node>
												</Node>
												<Node id="12" defaultChild="22">
													<SimplePredicate field="Education" operator="equal" value="Doctorate"/>
													<Node id="21" score="-0.06893057">
														<SimplePredicate field="float(Income)" operator="lessThan" value="76610.29"/>
													</Node>
													<Node id="22" score="0.0689306">
														<SimplePredicate field="float(Income)" operator="greaterOrEqual" value="76610.29"/>
													</Node>
												</Node>
											</Node>
											<Node id="8" defaultChild="14">
												<SimplePredicate field="Education" operator="equal" value="Professional"/>
												<Node id="13" score="-0.19047782">
													<SimplePredicate field="float(Age)" operator="lessThan" value="35.0"/>
												</Node>
												<Node id="14" score="0.21067747">
													<SimplePredicate field="float(Age)" operator="greaterOrEqual" value="35.0"/>
												</Node>
											</Node>
										</Node>
										<Node id="4" score="0.19870666">
											<SimplePredicate field="float(Deductions)" operator="greaterOrEqual" value="1564.0"/>
										</Node>
									</Node>
									<Node id="2" defaultChild="6">
										<SimplePredicate field="Marital" operator="equal" value="Married"/>
										<Node id="5" defaultChild="9">
											<SimplePredicate field="float(Deductions)" operator="lessThan" value="1848.0"/>
											<Node id="9" defaultChild="15">
												<SimplePredicate field="Education" operator="notEqual" value="Bachelor"/>
												<Node id="15" defaultChild="23">
													<SimplePredicate field="Education" operator="notEqual" value="Master"/>
													<Node id="23" defaultChild="35">
														<SimplePredicate field="Occupation" operator="notEqual" value="Clerical"/>
														<Node id="35" score="-0.20739248">
															<SimplePredicate field="Occupation" operator="notEqual" value="Professional"/>
														</Node>
														<Node id="36" score="0.08249731">
															<SimplePredicate field="Occupation" operator="equal" value="Professional"/>
														</Node>
													</Node>
													<Node id="24" defaultChild="38">
														<SimplePredicate field="Occupation" operator="equal" value="Clerical"/>
														<Node id="37" score="-0.29637402">
															<SimplePredicate field="float(Income)" operator="lessThan" value="31036.73"/>
														</Node>
														<Node id="38" score="0.3101241">
															<SimplePredicate field="float(Income)" operator="greaterOrEqual" value="31036.73"/>
														</Node>
													</Node>
												</Node>
												<Node id="16" defaultChild="26">
													<SimplePredicate field="Education" operator="equal" value="Master"/>
													<Node id="25" score="-0.04609802">
														<SimplePredicate field="float(Hours)" operator="lessThan" value="35.0"/>
													</Node>
													<Node id="26" defaultChild="40">
														<SimplePredicate field="float(Hours)" operator="greaterOrEqual" value="35.0"/>
														<Node id="39" score="0.016370658">
															<SimplePredicate field="float(Income)" operator="lessThan" value="16834.5"/>
														</Node>
														<Node id="40" score="0.36424753">
															<SimplePredicate field="float(Income)" operator="greaterOrEqual" value="16834.5"/>
														</Node>
													</Node>
												</Node>
											</Node>
											<Node id="10" defaultChild="18">
												<SimplePredicate field="Education" operator="equal" value="Bachelor"/>
												<Node id="17" defaultChild="28">
													<SimplePredicate field="float(Hours)" operator="lessThan" value="41.0"/>
													<Node id="27" defaultChild="42">
														<SimplePredicate field="float(Income)" operator="lessThan" value="67520.29"/>
														<Node id="41" score="-0.28336152">
															<SimplePredicate field="float(Age)" operator="lessThan" value="34.0"/>
														</Node>
														<Node id="42" score="0.022676565">
															<SimplePredicate field="float(Age)" operator="greaterOrEqual" value="34.0"/>
														</Node>
													</Node>
													<Node id="28" defaultChild="44">
														<SimplePredicate field="float(Income)" operator="greaterOrEqual" value="67520.29"/>
														<Node id="43" score="0.32426575">
															<SimplePredicate field="float(Income)" operator="lessThan" value="165293.02"/>
														</Node>
														<Node id="44" score="0.060776632">
															<SimplePredicate field="float(Income)" operator="greaterOrEqual" value="165293.02"/>
														</Node>
													</Node>
												</Node>
												<Node id="18" defaultChild="29">
													<SimplePredicate field="float(Hours)" operator="greaterOrEqual" value="41.0"/>
													<Node id="29" defaultChild="45">
														<SimplePredicate field="Employment" operator="notEqual" value="Private"/>
														<Node id="45" score="0.1567643">
															<SimplePredicate field="Occupation" operator="notEqual" value="Professional"/>
														</Node>
														<Node id="46" score="-0.16849974">
															<SimplePredicate field="Occupation" operator="equal" value="Professional"/>
														</Node>
													</Node>
													<Node id="30" defaultChild="48">
														<SimplePredicate field="Employment" operator="equal" value="Private"/>
														<Node id="47" score="0.20247999">
															<SimplePredicate field="float(Income)" operator="lessThan" value="39093.3"/>
														</Node>
														<Node id="48" score="0.4317204">
															<SimplePredicate field="float(Income)" operator="greaterOrEqual" value="39093.3"/>
														</Node>
													</Node>
												</Node>
											</Node>
										</Node>
										<Node id="6" score="0.45875272">
											<SimplePredicate field="float(Deductions)" operator="greaterOrEqual" value="1848.0"/>
										</Node>
									</Node>
								</Node>
							</TreeModel>
						</Segment>
						<Segment id="3">
							<True/>
							<TreeModel functionName="regression" missingValueStrategy="defaultChild" splitCharacteristic="binarySplit" x-mathContext="float">
								<MiningSchema>
									<MiningField name="Employment"/>
									<MiningField name="Education"/>
									<MiningField name="Marital"/>
									<MiningField name="Occupation"/>
									<MiningField name="Gender"/>
									<MiningField name="float(Age)"/>
									<MiningField name="float(Income)"/>
									<MiningField name="float(Deductions)"/>
									<MiningField name="float(Hours)"/>
								</MiningSchema>
								<Node id="0" defaultChild="1">
									<True/>
									<Node id="1" defaultChild="4">
										<SimplePredicate field="Marital" operator="notEqual" value="Married"/>
										<Node id="3" defaultChild="8">
											<SimplePredicate field="float(Hours)" operator="lessThan" value="50.0"/>
											<Node id="7" defaultChild="15">
												<SimplePredicate field="float(Deductions)" operator="lessThan" value="1564.0"/>
												<Node id="15" defaultChild="27">
													<SimplePredicate field="Occupation" operator="notEqual" value="Professional"/>
													<Node id="27" score="-0.38458663">
														<SimplePredicate field="Education" operator="notEqual" value="Master"/>
													</Node>
													<Node id="28" score="-0.01846639">
														<SimplePredicate field="Education" operator="equal" value="Master"/>
													</Node>
												</Node>
												<Node id="16" defaultChild="30">
													<SimplePredicate field="Occupation" operator="equal" value="Professional"/>
													<Node id="29" defaultChild="49">
														<SimplePredicate field="float(Age)" operator="lessThan" value="48.0"/>
														<Node id="49" score="-0.357149">
															<SimplePredicate field="Gender" operator="notEqual" value="Male"/>
														</Node>
														<Node id="50" score="-0.14663386">
															<SimplePredicate field="Gender" operator="equal" value="Male"/>
														</Node>
													</Node>
													<Node id="30" defaultChild="52">
														<SimplePredicate field="float(Age)" operator="greaterOrEqual" value="48.0"/>
														<Node id="51" score="0.15283154">
															<SimplePredicate field="float(Income)" operator="lessThan" value="76402.88"/>
														</Node>
														<Node id="52" score="-0.17580509">
															<SimplePredicate field="float(Income)" operator="greaterOrEqual" value="76402.88"/>
														</Node>
													</Node>
												</Node>
											</Node>
											<Node id="8" score="0.13143654">
												<SimplePredicate field="float(Deductions)" operator="greaterOrEqual" value="1564.0"/>
											</Node>
										</Node>
										<Node id="4" defaultChild="9">
											<SimplePredicate field="float(Hours)" operator="greaterOrEqual" value="50.0"/>
											<Node id="9" defaultChild="17">
												<SimplePredicate field="Education" operator="notEqual" value="Professional"/>
												<Node id="17" defaultChild="32">
													<SimplePredicate field="Occupation" operator="notEqual" value="Executive"/>
													<Node id="31" defaultChild="54">
														<SimplePredicate field="float(Age)" operator="lessThan" value="53.0"/>
														<Node id="53" score="-0.06661258">
															<SimplePredicate field="float(Income)" operator="lessThan" value="34585.86"/>
														</Node>
														<Node id="54" score="-0.29457656">
															<SimplePredicate field="float(Income)" operator="greaterOrEqual" value="34585.86"/>
														</Node>
													</Node>
													<Node id="32" score="0.006473196">
														<SimplePredicate field="float(Age)" operator="greaterOrEqual" value="53.0"/>
													</Node>
												</Node>
												<Node id="18" defaultChild="34">
													<SimplePredicate field="Occupation" operator="equal" value="Executive"/>
													<Node id="33" defaultChild="56">
														<SimplePredicate field="float(Income)" operator="lessThan" value="79994.06"/>
														<Node id="55" score="-0.08513244">
															<SimplePredicate field="float(Age)" operator="lessThan" value="30.999998"/>
														</Node>
														<Node id="56" score="0.18967864">
															<SimplePredicate field="float(Age)" operator="greaterOrEqual" value="30.999998"/>
														</Node>
													</Node>
													<Node id="34" defaultChild="58">
														<SimplePredicate field="float(Income)" operator="greaterOrEqual" value="79994.06"/>
														<Node id="57" score="-0.07397129">
															<SimplePredicate field="float(Age)" operator="lessThan" value="44.0"/>
														</Node>
														<Node id="58" score="-0.27669892">
															<SimplePredicate field="float(Age)" operator="greaterOrEqual" value="44.0"/>
														</Node>
													</Node>
												</Node>
											</Node>
											<Node id="10" score="0.14996573">
												<SimplePredicate field="Education" operator="equal" value="Professional"/>
											</Node>
										</Node>
									</Node>
									<Node id="2" defaultChild="5">
										<SimplePredicate field="Marital" operator="equal" value="Married"/>
										<Node id="5" defaultChild="11">
											<SimplePredicate field="Occupation" operator="notEqual" value="Executive"/>
											<Node id="11" defaultChild="20">
												<SimplePredicate field="Occupation" operator="notEqual" value="Professional"/>
												<Node id="19" defaultChild="36">
													<SimplePredicate field="float(Age)" operator="lessThan" value="44.0"/>
													<Node id="35" defaultChild="60">
														<SimplePredicate field="float(Hours)" operator="lessThan" value="42.0"/>
														<Node id="59" score="-0.39295372">
															<SimplePredicate field="float(Hours)" operator="lessThan" value="40.0"/>
														</Node>
														<Node id="60" score="-0.22231825">
															<SimplePredicate field="float(Hours)" operator="greaterOrEqual" value="40.0"/>
														</Node>
													</Node>
													<Node id="36" defaultChild="62">
														<SimplePredicate field="float(Hours)" operator="greaterOrEqual" value="42.0"/>
														<Node id="61" score="-0.09825549">
															<SimplePredicate field="float(Income)" operator="lessThan" value="59906.65"/>
														</Node>
														<Node id="62" score="0.29788482">
															<SimplePredicate field="float(Income)" operator="greaterOrEqual" value="59906.65"/>
														</Node>
													</Node>
												</Node>
												<Node id="20" defaultChild="38">
													<SimplePredicate field="float(Age)" operator="greaterOrEqual" value="44.0"/>
													<Node id="37" defaultChild="64">
														<SimplePredicate field="float(Income)" operator="lessThan" value="55758.54"/>
														<Node id="63" score="0.007530918">
															<SimplePredicate field="float(Age)" operator="lessThan" value="55.0"/>
														</Node>
														<Node id="64" score="-0.2020164">
															<SimplePredicate field="float(Age)" operator="greaterOrEqual" value="55.0"/>
														</Node>
													</Node>
													<Node id="38" defaultChild="65">
														<SimplePredicate field="float(Income)" operator="greaterOrEqual" value="55758.54"/>
														<Node id="65" score="0.2911853">
															<SimplePredicate field="Occupation" operator="notEqual" value="Machinist"/>
														</Node>
														<Node id="66" score="-0.090934604">
															<SimplePredicate field="Occupation" operator="equal" value="Machinist"/>
														</Node>
													</Node>
												</Node>
											</Node>
											<Node id="12" defaultChild="21">
												<SimplePredicate field="Occupation" operator="equal" value="Professional"/>
												<Node id="21" defaultChild="40">
													<SimplePredicate field="Education" operator="notEqual" value="College"/>
													<Node id="39" score="0.2834022">
														<SimplePredicate field="float(Age)" operator="lessThan" value="40.0"/>
													</Node>
													<Node id="40" defaultChild="68">
														<SimplePredicate field="float(Age)" operator="greaterOrEqual" value="40.0"/>
														<Node id="67" score="-0.098129496">
															<SimplePredicate field="float(Age)" operator="lessThan" value="48.0"/>
														</Node>
														<Node id="68" score="0.1882079">
															<SimplePredicate field="float(Age)" operator="greaterOrEqual" value="48.0"/>
														</Node>
													</Node>
												</Node>
												<Node id="22" defaultChild="42">
													<SimplePredicate field="Education" operator="equal" value="College"/>
													<Node id="41" score="-0.3041497">
														<SimplePredicate field="float(Income)" operator="lessThan" value="35483.35"/>
													</Node>
													<Node id="42" score="-0.10090777">
														<SimplePredicate field="float(Income)" operator="greaterOrEqual" value="35483.35"/>
													</Node>
												</Node>
											</Node>
										</Node>
										<Node id="6" defaultChild="13">
											<SimplePredicate field="Occupation" operator="equal" value="Executive"/>
											<Node id="13" defaultChild="24">
												<SimplePredicate field="Employment" operator="notEqual" value="Consultant"/>
												<Node id="23" defaultChild="43">
													<SimplePredicate field="float(Age)" operator="lessThan" value="31.999998"/>
													<Node id="43" defaultChild="70">
														<SimplePredicate field="Education" operator="notEqual" value="Bachelor"/>
														<Node id="69" score="-0.06851431">
															<SimplePredicate field="float(Income)" operator="lessThan" value="42878.48"/>
														</Node>
														<Node id="70" score="-0.2571949">
															<SimplePredicate field="float(Income)" operator="greaterOrEqual" value="42878.48"/>
														</Node>
													</Node>
													<Node id="44" score="0.09720538">
														<SimplePredicate field="Education" operator="equal" value="Bachelor"/>
													</Node>
												</Node>
												<Node id="24" defaultChild="46">
													<SimplePredicate field="float(Age)" operator="greaterOrEqual" value="31.999998"/>
													<Node id="45" score="-0.054707043">
														<SimplePredicate field="float(Hours)" operator="lessThan" value="35.0"/>
													</Node>
													<Node id="46" defaultChild="72">
														<SimplePredicate field="float(Hours)" operator="greaterOrEqual" value="35.0"/>
														<Node id="71" score="0.28547165">
															<SimplePredicate field="float(Age)" operator="lessThan" value="51.0"/>
														</Node>
														<Node id="72" score="0.12667598">
															<SimplePredicate field="float(Age)" operator="greaterOrEqual" value="51.0"/>
														</Node>
													</Node>
												</Node>
											</Node>
											<Node id="14" defaultChild="26">
												<SimplePredicate field="Employment" operator="equal" value="Consultant"/>
												<Node id="25" defaultChild="47">
													<SimplePredicate field="float(Income)" operator="lessThan" value="41927.58"/>
													<Node id="47" score="-0.0873899">
														<SimplePredicate field="Education" operator="notEqual" value="HSgrad"/>
													</Node>
													<Node id="48" score="0.08205515">
														<SimplePredicate field="Education" operator="equal" value="HSgrad"/>
													</Node>
												</Node>
												<Node id="26" score="-0.23448446">
													<SimplePredicate field="float(Income)" operator="greaterOrEqual" value="41927.58"/>
												</Node>
											</Node>
										</Node>
									</Node>
								</Node>
							</TreeModel>
						</Segment>
						<Segment id="4">
							<True/>
							<TreeModel functionName="regression" missingValueStrategy="defaultChild" splitCharacteristic="binarySplit" x-mathContext="float">
								<MiningSchema>
									<MiningField name="Employment"/>
									<MiningField name="Education"/>
									<MiningField name="Marital"/>
									<MiningField name="Occupation"/>
									<MiningField name="float(Age)"/>
									<MiningField name="float(Income)"/>
									<MiningField name="float(Deductions)"/>
									<MiningField name="float(Hours)"/>
								</MiningSchema>
								<Node id="0" defaultChild="1">
									<True/>
									<Node id="1" defaultChild="4">
										<SimplePredicate field="Marital" operator="notEqual" value="Married"/>
										<Node id="3" defaultChild="8">
											<SimplePredicate field="float(Age)" operator="lessThan" value="39.0"/>
											<Node id="7" defaultChild="13">
												<SimplePredicate field="float(Hours)" operator="lessThan" value="49.0"/>
												<Node id="13" score="-0.35658297">
													<SimplePredicate field="Education" operator="notEqual" value="Associate"/>
												</Node>
												<Node id="14" defaultChild="24">
													<SimplePredicate field="Education" operator="equal" value="Associate"/>
													<Node id="23" score="-0.24084759">
														<SimplePredicate field="float(Income)" operator="lessThan" value="78516.3"/>
													</Node>
													<Node id="24" defaultChild="36">
														<SimplePredicate field="float(Income)" operator="greaterOrEqual" value="78516.3"/>
														<Node id="35" score="0.03202618">
															<SimplePredicate field="float(Age)" operator="lessThan" value="25.999998"/>
														</Node>
														<Node id="36" score="-0.053716306">
															<SimplePredicate field="float(Age)" operator="greaterOrEqual" value="25.999998"/>
														</Node>
													</Node>
												</Node>
											</Node>
											<Node id="8" defaultChild="15">
												<SimplePredicate field="float(Hours)" operator="greaterOrEqual" value="49.0"/>
												<Node id="15" defaultChild="25">
													<SimplePredicate field="Occupation" operator="notEqual" value="Professional"/>
													<Node id="25" defaultChild="37">
														<SimplePredicate field="Marital" operator="notEqual" value="Unmarried"/>
														<Node id="37" score="-0.29271853">
															<SimplePredicate field="Employment" operator="notEqual" value="Consultant"/>
														</Node>
														<Node id="38" score="-0.051895328">
															<SimplePredicate field="Employment" operator="equal" value="Consultant"/>
														</Node>
													</Node>
													<Node id="26" score="0.056166586">
														<SimplePredicate field="Marital" operator="equal" value="Unmarried"/>
													</Node>
												</Node>
												<Node id="16" score="0.0357917">
													<SimplePredicate field="Occupation" operator="equal" value="Professional"/>
												</Node>
											</Node>
										</Node>
										<Node id="4" defaultChild="9">
											<SimplePredicate field="float(Age)" operator="greaterOrEqual" value="39.0"/>
											<Node id="9" defaultChild="18">
												<SimplePredicate field="Education" operator="notEqual" value="Professional"/>
												<Node id="17" defaultChild="27">
													<SimplePredicate field="float(Deductions)" operator="lessThan" value="1511.3334"/>
													<Node id="27" defaultChild="40">
														<SimplePredicate field="Occupation" operator="notEqual" value="Professional"/>
														<Node id="39" score="-0.30912286">
															<SimplePredicate field="float(Hours)" operator="lessThan" value="43.0"/>
														</Node>
														<Node id="40" score="-0.13481523">
															<SimplePredicate field="float(Hours)" operator="greaterOrEqual" value="43.0"/>
														</Node>
													</Node>
													<Node id="28" defaultChild="42">
														<SimplePredicate field="Occupation" operator="equal" value="Professional"/>
														<Node id="41" score="-0.20776059">
															<SimplePredicate field="float(Age)" operator="lessThan" value="48.0"/>
														</Node>
														<Node id="42" score="0.0041653053">
															<SimplePredicate field="float(Age)" operator="greaterOrEqual" value="48.0"/>
														</Node>
													</Node>
												</Node>
												<Node id="18" score="0.15283294">
													<SimplePredicate field="float(Deductions)" operator="greaterOrEqual" value="1511.3334"/>
												</Node>
											</Node>
											<Node id="10" score="0.18512806">
												<SimplePredicate field="Education" operator="equal" value="Professional"/>
											</Node>
										</Node>
									</Node>
									<Node id="2" defaultChild="6">
										<SimplePredicate field="Marital" operator="equal" value="Married"/>
										<Node id="5" defaultChild="11">
											<SimplePredicate field="float(Deductions)" operator="lessThan" value="1848.0"/>
											<Node id="11" defaultChild="20">
												<SimplePredicate field="Education" operator="notEqual" value="HSgrad"/>
												<Node id="19" defaultChild="30">
													<SimplePredicate field="float(Hours)" operator="lessThan" value="38.0"/>
													<Node id="29" defaultChild="44">
														<SimplePredicate field="float(Income)" operator="lessThan" value="84181.82"/>
														<Node id="43" score="-0.021502342">
															<SimplePredicate field="float(Income)" operator="lessThan" value="27604.3"/>
														</Node>
														<Node id="44" score="-0.39700678">
															<SimplePredicate field="float(Income)" operator="greaterOrEqual" value="27604.3"/>
														</Node>
													</Node>
													<Node id="30" defaultChild="46">
														<SimplePredicate field="float(Income)" operator="greaterOrEqual" value="84181.82"/>
														<Node id="45" score="-0.14503652">
															<SimplePredicate field="float(Age)" operator="lessThan" value="33.0"/>
														</Node>
														<Node id="46" score="0.099233046">
															<SimplePredicate field="float(Age)" operator="greaterOrEqual" value="33.0"/>
														</Node>
													</Node>
												</Node>
												<Node id="20" defaultChild="31">
													<SimplePredicate field="float(Hours)" operator="greaterOrEqual" value="38.0"/>
													<Node id="31" defaultChild="47">
														<SimplePredicate field="Education" operator="notEqual" value="Yr9"/>
														<Node id="47" score="0.06121862">
															<SimplePredicate field="Education" operator="notEqual" value="Yr7t8"/>
														</Node>
														<Node id="48" score="-0.3422016">
															<SimplePredicate field="Education" operator="equal" value="Yr7t8"/>
														</Node>
													</Node>
													<Node id="32" score="-0.36993492">
														<SimplePredicate field="Education" operator="equal" value="Yr9"/>
													</Node>
												</Node>
											</Node>
											<Node id="12" defaultChild="22">
												<SimplePredicate field="Education" operator="equal" value="HSgrad"/>
												<Node id="21" defaultChild="34">
													<SimplePredicate field="float(Hours)" operator="lessThan" value="65.0"/>
													<Node id="33" defaultChild="50">
														<SimplePredicate field="float(Age)" operator="lessThan" value="39.0"/>
														<Node id="49" score="-0.020959899">
															<SimplePredicate field="float(Income)" operator="lessThan" value="11180.76"/>
														</Node>
														<Node id="50" score="-0.259877">
															<SimplePredicate field="float(Income)" operator="greaterOrEqual" value="11180.76"/>
														</Node>
													</Node>
													<Node id="34" defaultChild="52">
														<SimplePredicate field="float(Age)" operator="greaterOrEqual" value="39.0"/>
														<Node id="51" score="-0.38467696">
															<SimplePredicate field="float(Income)" operator="lessThan" value="17996.83"/>
														</Node>
														<Node id="52" score="-0.046902876">
															<SimplePredicate field="float(Income)" operator="greaterOrEqual" value="17996.83"/>
														</Node>
													</Node>
												</Node>
												<Node id="22" score="0.2712846">
													<SimplePredicate field="float(Hours)" operator="greaterOrEqual" value="65.0"/>
												</Node>
											</Node>
										</Node>
										<Node id="6" score="0.3778042">
											<SimplePredicate field="float(Deductions)" operator="greaterOrEqual" value="1848.0"/>
										</Node>
									</Node>
								</Node>
							</TreeModel>
						</Segment>
						<Segment id="5">
							<True/>
							<TreeModel functionName="regression" missingValueStrategy="defaultChild" splitCharacteristic="binarySplit" x-mathContext="float">
								<MiningSchema>
									<MiningField name="Employment"/>
									<MiningField name="Education"/>
									<MiningField name="Marital"/>
									<MiningField name="Occupation"/>
									<MiningField name="float(Age)"/>
									<MiningField name="float(Income)"/>
									<MiningField name="float(Deductions)"/>
									<MiningField name="float(Hours)"/>
								</MiningSchema>
								<Node id="0" defaultChild="1">
									<True/>
									<Node id="1" defaultChild="4">
										<SimplePredicate field="Marital" operator="notEqual" value="Married"/>
										<Node id="3" defaultChild="8">
											<SimplePredicate field="float(Age)" operator="lessThan" value="39.0"/>
											<Node id="7" defaultChild="13">
												<SimplePredicate field="float(Hours)" operator="lessThan" value="49.0"/>
												<Node id="13" defaultChild="25">
													<SimplePredicate field="Education" operator="notEqual" value="Associate"/>
													<Node id="25" score="-0.33040106">
														<SimplePredicate field="Education" operator="notEqual" value="Master"/>
													</Node>
													<Node id="26" score="-0.12019207">
														<SimplePredicate field="Education" operator="equal" value="Master"/>
													</Node>
												</Node>
												<Node id="14" defaultChild="28">
													<SimplePredicate field="Education" operator="equal" value="Associate"/>
													<Node id="27" score="0.033578087">
														<SimplePredicate field="float(Age)" operator="lessThan" value="24.999998"/>
													</Node>
													<Node id="28" score="-0.18156119">
														<SimplePredicate field="float(Age)" operator="greaterOrEqual" value="24.999998"/>
													</Node>
												</Node>
											</Node>
											<Node id="8" defaultChild="15">
												<SimplePredicate field="float(Hours)" operator="greaterOrEqual" value="49.0"/>
												<Node id="15" defaultChild="29">
													<SimplePredicate field="Education" operator="notEqual" value="Bachelor"/>
													<Node id="29" defaultChild="46">
														<SimplePredicate field="Occupation" operator="notEqual" value="Clerical"/>
														<Node id="45" score="-0.0728931">
															<SimplePredicate field="float(Income)" operator="lessThan" value="51457.79"/>
														</Node>
														<Node id="46" score="-0.2742975">
															<SimplePredicate field="float(Income)" operator="greaterOrEqual" value="51457.79"/>
														</Node>
													</Node>
													<Node id="30" score="-0.031960934">
														<SimplePredicate field="Occupation" operator="equal" value="Clerical"/>
													</Node>
												</Node>
												<Node id="16" defaultChild="32">
													<SimplePredicate field="Education" operator="equal" value="Bachelor"/>
													<Node id="31" score="0.15481177">
														<SimplePredicate field="float(Hours)" operator="lessThan" value="52.0"/>
													</Node>
													<Node id="32" score="-0.17620775">
														<SimplePredicate field="float(Hours)" operator="greaterOrEqual" value="52.0"/>
													</Node>
												</Node>
											</Node>
										</Node>
										<Node id="4" defaultChild="10">
											<SimplePredicate field="float(Age)" operator="greaterOrEqual" value="39.0"/>
											<Node id="9" defaultChild="17">
												<SimplePredicate field="float(Income)" operator="lessThan" value="76997.19"/>
												<Node id="17" defaultChild="34">
													<SimplePredicate field="Education" operator="notEqual" value="Bachelor"/>
													<Node id="33" score="0.12577647">
														<SimplePredicate field="float(Age)" operator="lessThan" value="40.0"/>
													</Node>
													<Node id="34" defaultChild="47">
														<SimplePredicate field="float(Age)" operator="greaterOrEqual" value="40.0"/>
														<Node id="47" score="-0.07695931">
															<SimplePredicate field="Employment" operator="notEqual" value="Private"/>
														</Node>
														<Node id="48" score="-0.28756148">
															<SimplePredicate field="Employment" operator="equal" value="Private"/>
														</Node>
													</Node>
												</Node>
												<Node id="18" defaultChild="35">
													<SimplePredicate field="Education" operator="equal" value="Bachelor"/>
													<Node id="35" defaultChild="50">
														<SimplePredicate field="Occupation" operator="notEqual" value="Professional"/>
														<Node id="49" score="0.20561433">
															<SimplePredicate field="float(Age)" operator="lessThan" value="48.0"/>
														</Node>
														<Node id="50" score="-0.14403662">
															<SimplePredicate field="float(Age)" operator="greaterOrEqual" value="48.0"/>
														</Node>
													</Node>
													<Node id="36" score="0.41475475">
														<SimplePredicate field="Occupation" operator="equal" value="Professional"/>
													</Node>
												</Node>
											</Node>
											<Node id="10" defaultChild="19">
												<SimplePredicate field="float(Income)" operator="greaterOrEqual" value="76997.19"/>
												<Node id="19" defaultChild="37">
													<SimplePredicate field="Education" operator="notEqual" value="Associate"/>
													<Node id="37" defaultChild="52">
														<SimplePredicate field="Education" operator="notEqual" value="Master"/>
														<Node id="51" score="-0.294534">
															<SimplePredicate field="float(Hours)" operator="lessThan" value="44.0"/>
														</Node>
														<Node id="52" score="-0.12516151">
															<SimplePredicate field="float(Hours)" operator="greaterOrEqual" value="44.0"/>
														</Node>
													</Node>
													<Node id="38" defaultChild="54">
														<SimplePredicate field="Education" operator="equal" value="Master"/>
														<Node id="53" score="-0.13356158">
															<SimplePredicate field="float(Income)" operator="lessThan" value="144187.19"/>
														</Node>
														<Node id="54" score="0.08285663">
															<SimplePredicate field="float(Income)" operator="greaterOrEqual" value="144187.19"/>
														</Node>
													</Node>
												</Node>
												<Node id="20" score="0.031062031">
													<SimplePredicate field="Education" operator="equal" value="Associate"/>
												</Node>
											</Node>
										</Node>
									</Node>
									<Node id="2" defaultChild="6">
										<SimplePredicate field="Marital" operator="equal" value="Married"/>
										<Node id="5" defaultChild="11">
											<SimplePredicate field="float(Deductions)" operator="lessThan" value="1848.0"/>
											<Node id="11" defaultChild="21">
												<SimplePredicate field="Education" operator="notEqual" value="Master"/>
												<Node id="21" defaultChild="40">
													<SimplePredicate field="Education" operator="notEqual" value="Bachelor"/>
													<Node id="39" defaultChild="55">
														<SimplePredicate field="float(Hours)" operator="lessThan" value="37.0"/>
														<Node id="55" score="-0.28833684">
															<SimplePredicate field="Occupation" operator="notEqual" value="Clerical"/>
														</Node>
														<Node id="56" score="0.007046843">
															<SimplePredicate field="Occupation" operator="equal" value="Clerical"/>
														</Node>
													</Node>
													<Node id="40" defaultChild="58">
														<SimplePredicate field="float(Hours)" operator="greaterOrEqual" value="37.0"/>
														<Node id="57" score="-0.1571816">
															<SimplePredicate field="float(Age)" operator="lessThan" value="37.0"/>
														</Node>
														<Node id="58" score="-0.013097686">
															<SimplePredicate field="float(Age)" operator="greaterOrEqual" value="37.0"/>
														</Node>
													</Node>
												</Node>
												<Node id="22" defaultChild="41">
													<SimplePredicate field="Education" operator="equal" value="Bachelor"/>
													<Node id="41" defaultChild="59">
														<SimplePredicate field="Employment" operator="notEqual" value="Private"/>
														<Node id="59" score="-0.13334198">
															<SimplePredicate field="Occupation" operator="notEqual" value="Protective"/>
														</Node>
														<Node id="60" score="0.26497898">
															<SimplePredicate field="Occupation" operator="equal" value="Protective"/>
														</Node>
													</Node>
													<Node id="42" defaultChild="61">
														<SimplePredicate field="Employment" operator="equal" value="Private"/>
														<Node id="61" score="0.16530927">
															<SimplePredicate field="Occupation" operator="notEqual" value="Repair"/>
														</Node>
														<Node id="62" score="-0.19839446">
															<SimplePredicate field="Occupation" operator="equal" value="Repair"/>
														</Node>
													</Node>
												</Node>
											</Node>
											<Node id="12" defaultChild="24">
												<SimplePredicate field="Education" operator="equal" value="Master"/>
												<Node id="23" defaultChild="44">
													<SimplePredicate field="float(Age)" operator="lessThan" value="58.0"/>
													<Node id="43" score="-0.02697447">
														<SimplePredicate field="float(Income)" operator="lessThan" value="15898.03"/>
													</Node>
													<Node id="44" defaultChild="64">
														<SimplePredicate field="float(Income)" operator="greaterOrEqual" value="15898.03"/>
														<Node id="63" score="0.30858356">
															<SimplePredicate field="float(Hours)" operator="lessThan" value="56.0"/>
														</Node>
														<Node id="64" score="0.07507779">
															<SimplePredicate field="float(Hours)" operator="greaterOrEqual" value="56.0"/>
														</Node>
													</Node>
												</Node>
												<Node id="24" score="-0.061463036">
													<SimplePredicate field="float(Age)" operator="greaterOrEqual" value="58.0"/>
												</Node>
											</Node>
										</Node>
										<Node id="6" score="0.33441144">
											<SimplePredicate field="float(Deductions)" operator="greaterOrEqual" value="1848.0"/>
										</Node>
									</Node>
								</Node>
							</TreeModel>
						</Segment>
						<Segment id="6">
							<True/>
							<TreeModel functionName="regression" missingValueStrategy="defaultChild" splitCharacteristic="binarySplit" x-mathContext="float">
								<MiningSchema>
									<MiningField name="Employment"/>
									<MiningField name="Education"/>
									<MiningField name="Marital"/>
									<MiningField name="Occupation"/>
									<MiningField name="Gender"/>
									<MiningField name="float(Age)"/>
									<MiningField name="float(Income)"/>
									<MiningField name="float(Deductions)"/>
									<MiningField name="float(Hours)"/>
								</MiningSchema>
								<Node id="0" defaultChild="1">
									<True/>
									<Node id="1" defaultChild="3">
										<SimplePredicate field="Marital" operator="notEqual" value="Married"/>
										<Node id="3" defaultChild="8">
											<SimplePredicate field="Occupation" operator="notEqual" value="Professional"/>
											<Node id="7" defaultChild="14">
												<SimplePredicate field="float(Hours)" operator="lessThan" value="50.0"/>
												<Node id="13" defaultChild="25">
													<SimplePredicate field="float(Deductions)" operator="lessThan" value="1564.0"/>
													<Node id="25" defaultChild="42">
														<SimplePredicate field="Education" operator="notEqual" value="Master"/>
														<Node id="41" score="-0.29956764">
															<SimplePredicate field="float(Age)" operator="lessThan" value="58.0"/>
														</Node>
														<Node id="42" score="-0.13180767">
															<SimplePredicate field="float(Age)" operator="greaterOrEqual" value="58.0"/>
														</Node>
													</Node>
													<Node id="26" score="0.058168795">
														<SimplePredicate field="Education" operator="equal" value="Master"/>
													</Node>
												</Node>
												<Node id="14" score="0.11575877">
													<SimplePredicate field="float(Deductions)" operator="greaterOrEqual" value="1564.0"/>
												</Node>
											</Node>
											<Node id="8" defaultChild="15">
												<SimplePredicate field="float(Hours)" operator="greaterOrEqual" value="50.0"/>
												<Node id="15" defaultChild="27">
													<SimplePredicate field="Marital" operator="notEqual" value="Unmarried"/>
													<Node id="27" defaultChild="44">
														<SimplePredicate field="Occupation" operator="notEqual" value="Executive"/>
														<Node id="43" score="-0.05277714">
															<SimplePredicate field="float(Income)" operator="lessThan" value="50834.09"/>
														</Node>
														<Node id="44" score="-0.24356674">
															<SimplePredicate field="float(Income)" operator="greaterOrEqual" value="50834.09"/>
														</Node>
													</Node>
													<Node id="28" defaultChild="46">
														<SimplePredicate field="Occupation" operator="equal" value="Executive"/>
														<Node id="45" score="-0.19763067">
															<SimplePredicate field="float(Age)" operator="lessThan" value="30.999998"/>
														</Node>
														<Node id="46" score="0.07161865">
															<SimplePredicate field="float(Age)" operator="greaterOrEqual" value="30.999998"/>
														</Node>
													</Node>
												</Node>
												<Node id="16" score="0.15965946">
													<SimplePredicate field="Marital" operator="equal" value="Unmarried"/>
												</Node>
											</Node>
										</Node>
										<Node id="4" defaultChild="9">
											<SimplePredicate field="Occupation" operator="equal" value="Professional"/>
											<Node id="9" defaultChild="18">
												<SimplePredicate field="Gender" operator="notEqual" value="Male"/>
												<Node id="17" defaultChild="30">
													<SimplePredicate field="float(Age)" operator="lessThan" value="48.0"/>
													<Node id="29" score="-0.033200476">
														<SimplePredicate field="float(Income)" operator="lessThan" value="42018.75"/>
													</Node>
													<Node id="30" defaultChild="48">
														<SimplePredicate field="float(Income)" operator="greaterOrEqual" value="42018.75"/>
														<Node id="47" score="-0.041486643">
															<SimplePredicate field="float(Age)" operator="lessThan" value="29.999998"/>
														</Node>
														<Node id="48" score="-0.32027587">
															<SimplePredicate field="float(Age)" operator="greaterOrEqual" value="29.999998"/>
														</Node>
													</Node>
												</Node>
												<Node id="18" defaultChild="31">
													<SimplePredicate field="float(Age)" operator="greaterOrEqual" value="48.0"/>
													<Node id="31" defaultChild="50">
														<SimplePredicate field="Education" operator="notEqual" value="Bachelor"/>
														<Node id="49" score="0.060617212">
															<SimplePredicate field="float(Age)" operator="lessThan" value="52.0"/>
														</Node>
														<Node id="50" score="-0.20045553">
															<SimplePredicate field="float(Age)" operator="greaterOrEqual" value="52.0"/>
														</Node>
													</Node>
													<Node id="32" score="0.21391165">
														<SimplePredicate field="Education" operator="equal" value="Bachelor"/>
													</Node>
												</Node>
											</Node>
											<Node id="10" defaultChild="20">
												<SimplePredicate field="Gender" operator="equal" value="Male"/>
												<Node id="19" defaultChild="34">
													<SimplePredicate field="float(Income)" operator="lessThan" value="106946.9"/>
													<Node id="33" defaultChild="52">
														<SimplePredicate field="float(Income)" operator="lessThan" value="87725.56"/>
														<Node id="51" score="-0.19914417">
															<SimplePredicate field="float(Age)" operator="lessThan" value="29.999998"/>
														</Node>
														<Node id="52" score="0.12694874">
															<SimplePredicate field="float(Age)" operator="greaterOrEqual" value="29.999998"/>
														</Node>
													</Node>
													<Node id="34" defaultChild="53">
														<SimplePredicate field="float(Income)" operator="greaterOrEqual" value="87725.56"/>
														<Node id="53" score="0.0363281">
															<SimplePredicate field="Employment" operator="notEqual" value="Private"/>
														</Node>
														<Node id="54" score="0.33100736">
															<SimplePredicate field="Employment" operator="equal" value="Private"/>
														</Node>
													</Node>
												</Node>
												<Node id="20" score="-0.18299875">
													<SimplePredicate field="float(Income)" operator="greaterOrEqual" value="106946.9"/>
												</Node>
											</Node>
										</Node>
									</Node>
									<Node id="2" defaultChild="6">
										<SimplePredicate field="Marital" operator="equal" value="Married"/>
										<Node id="5" defaultChild="12">
											<SimplePredicate field="float(Deductions)" operator="lessThan" value="1848.0"/>
											<Node id="11" defaultChild="22">
												<SimplePredicate field="float(Income)" operator="lessThan" value="63012.31"/>
												<Node id="21" defaultChild="36">
													<SimplePredicate field="float(Age)" operator="lessThan" value="37.0"/>
													<Node id="35" defaultChild="56">
														<SimplePredicate field="float(Hours)" operator="lessThan" value="56.0"/>
														<Node id="55" score="-0.22064847">
															<SimplePredicate field="float(Hours)" operator="lessThan" value="42.0"/>
														</Node>
														<Node id="56" score="-0.102840304">
															<SimplePredicate field="float(Hours)" operator="greaterOrEqual" value="42.0"/>
														</Node>
													</Node>
													<Node id="36" defaultChild="58">
														<SimplePredicate field="float(Hours)" operator="greaterOrEqual" value="56.0"/>
														<Node id="57" score="0.26258114">
															<SimplePredicate field="float(Income)" operator="lessThan" value="37598.92"/>
														</Node>
														<Node id="58" score="-0.15550503">
															<SimplePredicate field="float(Income)" operator="greaterOrEqual" value="37598.92"/>
														</Node>
													</Node>
												</Node>
												<Node id="22" defaultChild="38">
													<SimplePredicate field="float(Age)" operator="greaterOrEqual" value="37.0"/>
													<Node id="37" defaultChild="60">
														<SimplePredicate field="float(Hours)" operator="lessThan" value="38.0"/>
														<Node id="59" score="-0.0025044733">
															<SimplePredicate field="float(Income)" operator="lessThan" value="26579.19"/>
														</Node>
														<Node id="60" score="-0.31452167">
															<SimplePredicate field="float(Income)" operator="greaterOrEqual" value="26579.19"/>
														</Node>
													</Node>
													<Node id="38" defaultChild="61">
														<SimplePredicate field="float(Hours)" operator="greaterOrEqual" value="38.0"/>
														<Node id="61" score="0.056573115">
															<SimplePredicate field="Occupation" operator="notEqual" value="Repair"/>
														</Node>
														<Node id="62" score="-0.12162903">
															<SimplePredicate field="Occupation" operator="equal" value="Repair"/>
														</Node>
													</Node>
												</Node>
											</Node>
											<Node id="12" defaultChild="23">
												<SimplePredicate field="float(Income)" operator="greaterOrEqual" value="63012.31"/>
												<Node id="23" defaultChild="39">
													<SimplePredicate field="Occupation" operator="notEqual" value="Service"/>
													<Node id="39" defaultChild="64">
														<SimplePredicate field="Occupation" operator="notEqual" value="Machinist"/>
														<Node id="63" score="0.039085615">
															<SimplePredicate field="float(Hours)" operator="lessThan" value="37.0"/>
														</Node>
														<Node id="64" score="0.2549115">
															<SimplePredicate field="float(Hours)" operator="greaterOrEqual" value="37.0"/>
														</Node>
													</Node>
													<Node id="40" score="-0.19554487">
														<SimplePredicate field="Occupation" operator="equal" value="Machinist"/>
													</Node>
												</Node>
												<Node id="24" score="-0.22455941">
													<SimplePredicate field="Occupation" operator="equal" value="Service"/>
												</Node>
											</Node>
										</Node>
										<Node id="6" score="0.3032577">
											<SimplePredicate field="float(Deductions)" operator="greaterOrEqual" value="1848.0"/>
										</Node>
									</Node>
								</Node>
							</TreeModel>
						</Segment>
						<Segment id="7">
							<True/>
							<TreeModel functionName="regression" missingValueStrategy="defaultChild" splitCharacteristic="binarySplit" x-mathContext="float">
								<MiningSchema>
									<MiningField name="Employment"/>
									<MiningField name="Education"/>
									<MiningField name="Marital"/>
									<MiningField name="Occupation"/>
									<MiningField name="float(Age)"/>
									<MiningField name="float(Income)"/>
									<MiningField name="float(Hours)"/>
								</MiningSchema>
								<Node id="0" defaultChild="1">
									<True/>
									<Node id="1" defaultChild="4">
										<SimplePredicate field="Marital" operator="notEqual" value="Married"/>
										<Node id="3" defaultChild="7">
											<SimplePredicate field="float(Age)" operator="lessThan" value="27.999998"/>
											<Node id="7" defaultChild="16">
												<SimplePredicate field="Education" operator="notEqual" value="Associate"/>
												<Node id="15" score="-0.3116871">
													<SimplePredicate field="float(Hours)" operator="lessThan" value="58.0"/>
												</Node>
												<Node id="16" score="-0.05864622">
													<SimplePredicate field="float(Hours)" operator="greaterOrEqual" value="58.0"/>
												</Node>
											</Node>
											<Node id="8" score="-0.054677274">
												<SimplePredicate field="Education" operator="equal" value="Associate"/>
											</Node>
										</Node>
										<Node id="4" defaultChild="9">
											<SimplePredicate field="float(Age)" operator="greaterOrEqual" value="27.999998"/>
											<Node id="9" defaultChild="17">
												<SimplePredicate field="Education" operator="notEqual" value="Bachelor"/>
												<Node id="17" defaultChild="29">
													<SimplePredicate field="Education" operator="notEqual" value="Doctorate"/>
													<Node id="29" defaultChild="43">
														<SimplePredicate field="Education" operator="notEqual" value="Professional"/>
														<Node id="43" score="-0.21920718">
															<SimplePredicate field="Occupation" operator="notEqual" value="Protective"/>
														</Node>
														<Node id="44" score="0.12510453">
															<SimplePredicate field="Occupation" operator="equal" value="Protective"/>
														</Node>
													</Node>
													<Node id="30" defaultChild="46">
														<SimplePredicate field="Education" operator="equal" value="Professional"/>
														<Node id="45" score="0.18880017">
															<SimplePredicate field="float(Income)" operator="lessThan" value="96723.42"/>
														</Node>
														<Node id="46" score="-0.021400953">
															<SimplePredicate field="float(Income)" operator="greaterOrEqual" value="96723.42"/>
														</Node>
													</Node>
												</Node>
												<Node id="18" defaultChild="32">
													<SimplePredicate field="Education" operator="equal" value="Doctorate"/>
													<Node id="31" score="0.0127361445">
														<SimplePredicate field="float(Income)" operator="lessThan" value="78257.05"/>
													</Node>
													<Node id="32" score="0.19552301">
														<SimplePredicate field="float(Income)" operator="greaterOrEqual" value="78257.05"/>
													</Node>
												</Node>
											</Node>
											<Node id="10" defaultChild="20">
												<SimplePredicate field="Education" operator="equal" value="Bachelor"/>
												<Node id="19" defaultChild="34">
													<SimplePredicate field="float(Income)" operator="lessThan" value="45259.14"/>
													<Node id="33" score="-0.08866397">
														<SimplePredicate field="float(Age)" operator="lessThan" value="40.0"/>
													</Node>
													<Node id="34" defaultChild="48">
														<SimplePredicate field="float(Age)" operator="greaterOrEqual" value="40.0"/>
														<Node id="47" score="0.43855685">
															<SimplePredicate field="float(Age)" operator="lessThan" value="48.0"/>
														</Node>
														<Node id="48" score="0.00446173">
															<SimplePredicate field="float(Age)" operator="greaterOrEqual" value="48.0"/>
														</Node>
													</Node>
												</Node>
												<Node id="20" defaultChild="35">
													<SimplePredicate field="float(Income)" operator="greaterOrEqual" value="45259.14"/>
													<Node id="35" defaultChild="49">
														<SimplePredicate field="Employment" operator="notEqual" value="Consultant"/>
														<Node id="49" score="-0.28504652">
															<SimplePredicate field="Employment" operator="notEqual" value="Private"/>
														</Node>
														<Node id="50" score="-0.03050147">
															<SimplePredicate field="Employment" operator="equal" value="Private"/>
														</Node>
													</Node>
													<Node id="36" score="0.08938438">
														<SimplePredicate field="Employment" operator="equal" value="Consultant"/>
													</Node>
												</Node>
											</Node>
										</Node>
									</Node>
									<Node id="2" defaultChild="5">
										<SimplePredicate field="Marital" operator="equal" value="Married"/>
										<Node id="5" defaultChild="12">
											<SimplePredicate field="Occupation" operator="notEqual" value="Executive"/>
											<Node id="11" defaultChild="21">
												<SimplePredicate field="float(Hours)" operator="lessThan" value="42.0"/>
												<Node id="21" defaultChild="38">
													<SimplePredicate field="Occupation" operator="notEqual" value="Protective"/>
													<Node id="37" defaultChild="52">
														<SimplePredicate field="float(Age)" operator="lessThan" value="28.999998"/>
														<Node id="51" score="-0.3192767">
															<SimplePredicate field="float(Income)" operator="lessThan" value="49069.97"/>
														</Node>
														<Node id="52" score="-0.113058515">
															<SimplePredicate field="float(Income)" operator="greaterOrEqual" value="49069.97"/>
														</Node>
													</Node>
													<Node id="38" defaultChild="54">
														<SimplePredicate field="float(Age)" operator="greaterOrEqual" value="28.999998"/>
														<Node id="53" score="0.099507414">
															<SimplePredicate field="float(Age)" operator="lessThan" value="31.999998"/>
														</Node>
														<Node id="54" score="-0.09151943">
															<SimplePredicate field="float(Age)" operator="greaterOrEqual" value="31.999998"/>
														</Node>
													</Node>
												</Node>
												<Node id="22" score="0.2496563">
													<SimplePredicate field="Occupation" operator="equal" value="Protective"/>
												</Node>
											</Node>
											<Node id="12" defaultChild="23">
												<SimplePredicate field="float(Hours)" operator="greaterOrEqual" value="42.0"/>
												<Node id="23" defaultChild="40">
													<SimplePredicate field="Education" operator="notEqual" value="Professional"/>
													<Node id="39" score="0.28249872">
														<SimplePredicate field="float(Hours)" operator="lessThan" value="44.0"/>
													</Node>
													<Node id="40" defaultChild="55">
														<SimplePredicate field="float(Hours)" operator="greaterOrEqual" value="44.0"/>
														<Node id="55" score="-0.040419318">
															<SimplePredicate field="Occupation" operator="notEqual" value="Sales"/>
														</Node>
														<Node id="56" score="0.114364184">
															<SimplePredicate field="Occupation" operator="equal" value="Sales"/>
														</Node>
													</Node>
												</Node>
												<Node id="24" score="0.31444815">
													<SimplePredicate field="Education" operator="equal" value="Professional"/>
												</Node>
											</Node>
										</Node>
										<Node id="6" defaultChild="13">
											<SimplePredicate field="Occupation" operator="equal" value="Executive"/>
											<Node id="13" defaultChild="26">
												<SimplePredicate field="Employment" operator="notEqual" value="Consultant"/>
												<Node id="25" defaultChild="42">
													<SimplePredicate field="float(Age)" operator="lessThan" value="58.0"/>
													<Node id="41" defaultChild="58">
														<SimplePredicate field="float(Age)" operator="lessThan" value="52.0"/>
														<Node id="57" score="-0.014466691">
															<SimplePredicate field="float(Income)" operator="lessThan" value="27743.82"/>
														</Node>
														<Node id="58" score="0.20651875">
															<SimplePredicate field="float(Income)" operator="greaterOrEqual" value="27743.82"/>
														</Node>
													</Node>
													<Node id="42" defaultChild="60">
														<SimplePredicate field="float(Age)" operator="greaterOrEqual" value="52.0"/>
														<Node id="59" score="0.13984488">
															<SimplePredicate field="float(Income)" operator="lessThan" value="31609.41"/>
														</Node>
														<Node id="60" score="-0.23882172">
															<SimplePredicate field="float(Income)" operator="greaterOrEqual" value="31609.41"/>
														</Node>
													</Node>
												</Node>
												<Node id="26" score="0.33180422">
													<SimplePredicate field="float(Age)" operator="greaterOrEqual" value="58.0"/>
												</Node>
											</Node>
											<Node id="14" defaultChild="28">
												<SimplePredicate field="Employment" operator="equal" value="Consultant"/>
												<Node id="27" score="-0.0022577927">
													<SimplePredicate field="float(Income)" operator="lessThan" value="41900.16"/>
												</Node>
												<Node id="28" score="-0.1723682">
													<SimplePredicate field="float(Income)" operator="greaterOrEqual" value="41900.16"/>
												</Node>
											</Node>
										</Node>
									</Node>
								</Node>
							</TreeModel>
						</Segment>
						<Segment id="8">
							<True/>
							<TreeModel functionName="regression" missingValueStrategy="defaultChild" splitCharacteristic="binarySplit" x-mathContext="float">
								<MiningSchema>
									<MiningField name="Education"/>
									<MiningField name="Marital"/>
									<MiningField name="Occupation"/>
									<MiningField name="float(Age)"/>
									<MiningField name="float(Income)"/>
									<MiningField name="float(Deductions)"/>
									<MiningField name="float(Hours)"/>
								</MiningSchema>
								<Node id="0" defaultChild="1">
									<True/>
									<Node id="1" defaultChild="4">
										<SimplePredicate field="Marital" operator="notEqual" value="Married"/>
										<Node id="3" defaultChild="7">
											<SimplePredicate field="float(Age)" operator="lessThan" value="26.999998"/>
											<Node id="7" defaultChild="16">
												<SimplePredicate field="Education" operator="notEqual" value="Associate"/>
												<Node id="15" score="-0.30854484">
													<SimplePredicate field="float(Hours)" operator="lessThan" value="58.0"/>
												</Node>
												<Node id="16" score="-0.03457018">
													<SimplePredicate field="float(Hours)" operator="greaterOrEqual" value="58.0"/>
												</Node>
											</Node>
											<Node id="8" score="-0.04527244">
												<SimplePredicate field="Education" operator="equal" value="Associate"/>
											</Node>
										</Node>
										<Node id="4" defaultChild="10">
											<SimplePredicate field="float(Age)" operator="greaterOrEqual" value="26.999998"/>
											<Node id="9" defaultChild="17">
												<SimplePredicate field="float(Income)" operator="lessThan" value="116242.34"/>
												<Node id="17" defaultChild="28">
													<SimplePredicate field="Occupation" operator="notEqual" value="Service"/>
													<Node id="27" defaultChild="37">
														<SimplePredicate field="float(Hours)" operator="lessThan" value="50.0"/>
														<Node id="37" score="-0.13998769">
															<SimplePredicate field="Occupation" operator="notEqual" value="Professional"/>
														</Node>
														<Node id="38" score="0.042086594">
															<SimplePredicate field="Occupation" operator="equal" value="Professional"/>
														</Node>
													</Node>
													<Node id="28" defaultChild="40">
														<SimplePredicate field="float(Hours)" operator="greaterOrEqual" value="50.0"/>
														<Node id="39" score="0.10939543">
															<SimplePredicate field="float(Hours)" operator="lessThan" value="58.0"/>
														</Node>
														<Node id="40" score="-0.03503396">
															<SimplePredicate field="float(Hours)" operator="greaterOrEqual" value="58.0"/>
														</Node>
													</Node>
												</Node>
												<Node id="18" score="-0.2803955">
													<SimplePredicate field="Occupation" operator="equal" value="Service"/>
												</Node>
											</Node>
											<Node id="10" defaultChild="19">
												<SimplePredicate field="float(Income)" operator="greaterOrEqual" value="116242.34"/>
												<Node id="19" defaultChild="29">
													<SimplePredicate field="Education" operator="notEqual" value="Master"/>
													<Node id="29" defaultChild="41">
														<SimplePredicate field="Marital" operator="notEqual" value="Widowed"/>
														<Node id="41" score="-0.29808417">
															<SimplePredicate field="Occupation" operator="notEqual" value="Executive"/>
														</Node>
														<Node id="42" score="-0.056963354">
															<SimplePredicate field="Occupation" operator="equal" value="Executive"/>
														</Node>
													</Node>
													<Node id="30" score="-0.012504806">
														<SimplePredicate field="Marital" operator="equal" value="Widowed"/>
													</Node>
												</Node>
												<Node id="20" score="0.03717811">
													<SimplePredicate field="Education" operator="equal" value="Master"/>
												</Node>
											</Node>
										</Node>
									</Node>
									<Node id="2" defaultChild="5">
										<SimplePredicate field="Marital" operator="equal" value="Married"/>
										<Node id="5" defaultChild="12">
											<SimplePredicate field="Occupation" operator="notEqual" value="Service"/>
											<Node id="11" defaultChild="22">
												<SimplePredicate field="float(Deductions)" operator="lessThan" value="1848.0"/>
												<Node id="21" defaultChild="32">
													<SimplePredicate field="float(Income)" operator="lessThan" value="60894.18"/>
													<Node id="31" defaultChild="44">
														<SimplePredicate field="float(Age)" operator="lessThan" value="37.0"/>
														<Node id="43" score="-0.13427746">
															<SimplePredicate field="float(Hours)" operator="lessThan" value="56.0"/>
														</Node>
														<Node id="44" score="0.0969282">
															<SimplePredicate field="float(Hours)" operator="greaterOrEqual" value="56.0"/>
														</Node>
													</Node>
													<Node id="32" defaultChild="46">
														<SimplePredicate field="float(Age)" operator="greaterOrEqual" value="37.0"/>
														<Node id="45" score="-0.16230002">
															<SimplePredicate field="float(Hours)" operator="lessThan" value="35.0"/>
														</Node>
														<Node id="46" score="0.024651589">
															<SimplePredicate field="float(Hours)" operator="greaterOrEqual" value="35.0"/>
														</Node>
													</Node>
												</Node>
												<Node id="22" defaultChild="33">
													<SimplePredicate field="float(Income)" operator="greaterOrEqual" value="60894.18"/>
													<Node id="33" defaultChild="48">
														<SimplePredicate field="Occupation" operator="notEqual" value="Machinist"/>
														<Node id="47" score="0.17541566">
															<SimplePredicate field="float(Income)" operator="lessThan" value="253732.98"/>
														</Node>
														<Node id="48" score="-0.025577264">
															<SimplePredicate field="float(Income)" operator="greaterOrEqual" value="253732.98"/>
														</Node>
													</Node>
													<Node id="34" score="-0.107029825">
														<SimplePredicate field="Occupation" operator="equal" value="Machinist"/>
													</Node>
												</Node>
											</Node>
											<Node id="12" score="0.2773445">
												<SimplePredicate field="float(Deductions)" operator="greaterOrEqual" value="1848.0"/>
											</Node>
										</Node>
										<Node id="6" defaultChild="14">
											<SimplePredicate field="Occupation" operator="equal" value="Service"/>
											<Node id="13" defaultChild="23">
												<SimplePredicate field="float(Age)" operator="lessThan" value="52.0"/>
												<Node id="23" defaultChild="36">
													<SimplePredicate field="Education" operator="notEqual" value="College"/>
													<Node id="35" score="-0.04980979">
														<SimplePredicate field="float(Hours)" operator="lessThan" value="35.0"/>
													</Node>
													<Node id="36" score="-0.31653273">
														<SimplePredicate field="float(Hours)" operator="greaterOrEqual" value="35.0"/>
													</Node>
												</Node>
												<Node id="24" score="-0.08199261">
													<SimplePredicate field="Education" operator="equal" value="College"/>
												</Node>
											</Node>
											<Node id="14" defaultChild="26">
												<SimplePredicate field="float(Age)" operator="greaterOrEqual" value="52.0"/>
												<Node id="25" score="0.025520254">
													<SimplePredicate field="float(Age)" operator="lessThan" value="59.0"/>
												</Node>
												<Node id="26" score="-0.053704996">
													<SimplePredicate field="float(Age)" operator="greaterOrEqual" value="59.0"/>
												</Node>
											</Node>
										</Node>
									</Node>
								</Node>
							</TreeModel>
						</Segment>
						<Segment id="9">
							<True/>
							<TreeModel functionName="regression" missingValueStrategy="defaultChild" splitCharacteristic="binarySplit" x-mathContext="float">
								<MiningSchema>
									<MiningField name="Education"/>
									<MiningField name="Marital"/>
									<MiningField name="Occupation"/>
									<MiningField name="float(Age)"/>
									<MiningField name="float(Income)"/>
									<MiningField name="float(Hours)"/>
								</MiningSchema>
								<Node id="0" defaultChild="2">
									<True/>
									<Node id="1" defaultChild="3">
										<SimplePredicate field="float(Age)" operator="lessThan" value="24.999998"/>
										<Node id="3" score="-0.29573485">
											<SimplePredicate field="Education" operator="notEqual" value="Associate"/>
										</Node>
										<Node id="4" score="-0.012036183">
											<SimplePredicate field="Education" operator="equal" value="Associate"/>
										</Node>
									</Node>
									<Node id="2" defaultChild="5">
										<SimplePredicate field="float(Age)" operator="greaterOrEqual" value="24.999998"/>
										<Node id="5" defaultChild="7">
											<SimplePredicate field="Occupation" operator="notEqual" value="Service"/>
											<Node id="7" defaultChild="12">
												<SimplePredicate field="Marital" operator="notEqual" value="Married"/>
												<Node id="11" defaultChild="18">
													<SimplePredicate field="float(Income)" operator="lessThan" value="118691.41"/>
													<Node id="17" defaultChild="27">
														<SimplePredicate field="float(Hours)" operator="lessThan" value="36.0"/>
														<Node id="27" score="-0.25733382">
															<SimplePredicate field="Occupation" operator="notEqual" value="Professional"/>
														</Node>
														<Node id="28" score="-0.054775096">
															<SimplePredicate field="Occupation" operator="equal" value="Professional"/>
														</Node>
													</Node>
													<Node id="18" defaultChild="29">
														<SimplePredicate field="float(Hours)" operator="greaterOrEqual" value="36.0"/>
														<Node id="29" score="0.013005658">
															<SimplePredicate field="Education" operator="notEqual" value="College"/>
														</Node>
														<Node id="30" score="-0.1739318">
															<SimplePredicate field="Education" operator="equal" value="College"/>
														</Node>
													</Node>
												</Node>
												<Node id="12" defaultChild="19">
													<SimplePredicate field="float(Income)" operator="greaterOrEqual" value="118691.41"/>
													<Node id="19" defaultChild="31">
														<SimplePredicate field="Education" operator="notEqual" value="Master"/>
														<Node id="31" score="-0.24989922">
															<SimplePredicate field="Marital" operator="notEqual" value="Widowed"/>
														</Node>
														<Node id="32" score="0.053466544">
															<SimplePredicate field="Marital" operator="equal" value="Widowed"/>
														</Node>
													</Node>
													<Node id="20" score="0.050275486">
														<SimplePredicate field="Education" operator="equal" value="Master"/>
													</Node>
												</Node>
											</Node>
											<Node id="8" defaultChild="13">
												<SimplePredicate field="Marital" operator="equal" value="Married"/>
												<Node id="13" defaultChild="21">
													<SimplePredicate field="Occupation" operator="notEqual" value="Transport"/>
													<Node id="21" defaultChild="34">
														<SimplePredicate field="Education" operator="notEqual" value="HSgrad"/>
														<Node id="33" score="0.18190834">
															<SimplePredicate field="float(Income)" operator="lessThan" value="20959.54"/>
														</Node>
														<Node id="34" score="0.027058763">
															<SimplePredicate field="float(Income)" operator="greaterOrEqual" value="20959.54"/>
														</Node>
													</Node>
													<Node id="22" defaultChild="35">
														<SimplePredicate field="Education" operator="equal" value="HSgrad"/>
														<Node id="35" score="-0.02205686">
															<SimplePredicate field="Occupation" operator="notEqual" value="Farming"/>
														</Node>
														<Node id="36" score="-0.25929296">
															<SimplePredicate field="Occupation" operator="equal" value="Farming"/>
														</Node>
													</Node>
												</Node>
												<Node id="14" defaultChild="24">
													<SimplePredicate field="Occupation" operator="equal" value="Transport"/>
													<Node id="23" score="-0.27977934">
														<SimplePredicate field="float(Age)" operator="lessThan" value="44.0"/>
													</Node>
													<Node id="24" defaultChild="38">
														<SimplePredicate field="float(Age)" operator="greaterOrEqual" value="44.0"/>
														<Node id="37" score="0.099858">
															<SimplePredicate field="float(Income)" operator="lessThan" value="37662.02"/>
														</Node>
														<Node id="38" score="-0.12732075">
															<SimplePredicate field="float(Income)" operator="greaterOrEqual" value="37662.02"/>
														</Node>
													</Node>
												</Node>
											</Node>
										</Node>
										<Node id="6" defaultChild="10">
											<SimplePredicate field="Occupation" operator="equal" value="Service"/>
											<Node id="9" defaultChild="16">
												<SimplePredicate field="float(Age)" operator="lessThan" value="58.0"/>
												<Node id="15" score="-0.077612124">
													<SimplePredicate field="float(Hours)" operator="lessThan" value="24.999998"/>
												</Node>
												<Node id="16" defaultChild="25">
													<SimplePredicate field="float(Hours)" operator="greaterOrEqual" value="24.999998"/>
													<Node id="25" defaultChild="40">
														<SimplePredicate field="Education" operator="notEqual" value="College"/>
														<Node id="39" score="-0.29926068">
															<SimplePredicate field="float(Age)" operator="lessThan" value="54.0"/>
														</Node>
														<Node id="40" score="-0.08758585">
															<SimplePredicate field="float(Age)" operator="greaterOrEqual" value="54.0"/>
														</Node>
													</Node>
													<Node id="26" score="-0.08655576">
														<SimplePredicate field="Education" operator="equal" value="College"/>
													</Node>
												</Node>
											</Node>
											<Node id="10" score="-0.05627979">
												<SimplePredicate field="float(Age)" operator="greaterOrEqual" value="58.0"/>
											</Node>
										</Node>
									</Node>
								</Node>
							</TreeModel>
						</Segment>
						<Segment id="10">
							<True/>
							<TreeModel functionName="regression" missingValueStrategy="defaultChild" splitCharacteristic="binarySplit" x-mathContext="float">
								<MiningSchema>
									<MiningField name="Education"/>
									<MiningField name="Marital"/>
									<MiningField name="Occupation"/>
									<MiningField name="float(Age)"/>
									<MiningField name="float(Income)"/>
									<MiningField name="float(Hours)"/>
								</MiningSchema>
								<Node id="0" defaultChild="2">
									<True/>
									<Node id="1" defaultChild="3">
										<SimplePredicate field="float(Age)" operator="lessThan" value="24.999998"/>
										<Node id="3" defaultChild="7">
											<SimplePredicate field="Education" operator="notEqual" value="Associate"/>
											<Node id="7" score="-0.28954113">
												<SimplePredicate field="Occupation" operator="notEqual" value="Professional"/>
											</Node>
											<Node id="8" score="-0.07799635">
												<SimplePredicate field="Occupation" operator="equal" value="Professional"/>
											</Node>
										</Node>
										<Node id="4" score="-0.010021563">
											<SimplePredicate field="Education" operator="equal" value="Associate"/>
										</Node>
									</Node>
									<Node id="2" defaultChild="5">
										<SimplePredicate field="float(Age)" operator="greaterOrEqual" value="24.999998"/>
										<Node id="5" defaultChild="9">
											<SimplePredicate field="Occupation" operator="notEqual" value="Service"/>
											<Node id="9" defaultChild="13">
												<SimplePredicate field="Education" operator="notEqual" value="Yr7t8"/>
												<Node id="13" defaultChild="17">
													<SimplePredicate field="Occupation" operator="notEqual" value="Cleaner"/>
													<Node id="17" defaultChild="26">
														<SimplePredicate field="Occupation" operator="notEqual" value="Transport"/>
														<Node id="25" score="-0.09498638">
															<SimplePredicate field="float(Hours)" operator="lessThan" value="38.0"/>
														</Node>
														<Node id="26" score="0.023984471">
															<SimplePredicate field="float(Hours)" operator="greaterOrEqual" value="38.0"/>
														</Node>
													</Node>
													<Node id="18" defaultChild="28">
														<SimplePredicate field="Occupation" operator="equal" value="Transport"/>
														<Node id="27" score="-0.22888708">
															<SimplePredicate field="float(Age)" operator="lessThan" value="48.0"/>
														</Node>
														<Node id="28" score="0.029381273">
															<SimplePredicate field="float(Age)" operator="greaterOrEqual" value="48.0"/>
														</Node>
													</Node>
												</Node>
												<Node id="14" defaultChild="20">
													<SimplePredicate field="Occupation" operator="equal" value="Cleaner"/>
													<Node id="19" defaultChild="30">
														<SimplePredicate field="float(Hours)" operator="lessThan" value="45.0"/>
														<Node id="29" score="-0.06768094">
															<SimplePredicate field="float(Income)" operator="lessThan" value="30247.86"/>
														</Node>
														<Node id="30" score="-0.29737353">
															<SimplePredicate field="float(Income)" operator="greaterOrEqual" value="30247.86"/>
														</Node>
													</Node>
													<Node id="20" score="0.011018334">
														<SimplePredicate field="float(Hours)" operator="greaterOrEqual" value="45.0"/>
													</Node>
												</Node>
											</Node>
											<Node id="10" score="-0.29573178">
												<SimplePredicate field="Education" operator="equal" value="Yr7t8"/>
											</Node>
										</Node>
										<Node id="6" defaultChild="11">
											<SimplePredicate field="Occupation" operator="equal" value="Service"/>
											<Node id="11" score="-0.26869276">
												<SimplePredicate field="Marital" operator="notEqual" value="Married"/>
											</Node>
											<Node id="12" defaultChild="16">
												<SimplePredicate field="Marital" operator="equal" value="Married"/>
												<Node id="15" defaultChild="22">
													<SimplePredicate field="float(Income)" operator="lessThan" value="40079.48"/>
													<Node id="21" score="0.016388414">
														<SimplePredicate field="float(Age)" operator="lessThan" value="38.0"/>
													</Node>
													<Node id="22" score="-0.2943213">
														<SimplePredicate field="float(Age)" operator="greaterOrEqual" value="38.0"/>
													</Node>
												</Node>
												<Node id="16" defaultChild="24">
													<SimplePredicate field="float(Income)" operator="greaterOrEqual" value="40079.48"/>
													<Node id="23" score="-0.23247571">
														<SimplePredicate field="float(Age)" operator="lessThan" value="41.0"/>
													</Node>
													<Node id="24" score="0.19280466">
														<SimplePredicate field="float(Age)" operator="greaterOrEqual" value="41.0"/>
													</Node>
												</Node>
											</Node>
										</Node>
									</Node>
								</Node>
							</TreeModel>
						</Segment>
						<Segment id="11">
							<True/>
							<TreeModel functionName="regression" missingValueStrategy="defaultChild" splitCharacteristic="binarySplit" x-mathContext="float">
								<MiningSchema>
									<MiningField name="Education"/>
									<MiningField name="Marital"/>
									<MiningField name="Occupation"/>
									<MiningField name="float(Age)"/>
									<MiningField name="float(Deductions)"/>
									<MiningField name="float(Hours)"/>
								</MiningSchema>
								<Node id="0" defaultChild="2">
									<True/>
									<Node id="1" defaultChild="3">
										<SimplePredicate field="float(Age)" operator="lessThan" value="27.999998"/>
										<Node id="3" defaultChild="7">
											<SimplePredicate field="Marital" operator="notEqual" value="Absent"/>
											<Node id="7" defaultChild="14">
												<SimplePredicate field="Education" operator="notEqual" value="HSgrad"/>
												<Node id="13" defaultChild="24">
													<SimplePredicate field="float(Age)" operator="lessThan" value="26.999998"/>
													<Node id="23" score="-0.19118309">
														<SimplePredicate field="float(Age)" operator="lessThan" value="23.999998"/>
													</Node>
													<Node id="24" defaultChild="31">
														<SimplePredicate field="float(Age)" operator="greaterOrEqual" value="23.999998"/>
														<Node id="31" score="0.10140719">
															<SimplePredicate field="Occupation" operator="notEqual" value="Clerical"/>
														</Node>
														<Node id="32" score="-0.07742436">
															<SimplePredicate field="Occupation" operator="equal" value="Clerical"/>
														</Node>
													</Node>
												</Node>
												<Node id="14" score="-0.25599277">
													<SimplePredicate field="float(Age)" operator="greaterOrEqual" value="26.999998"/>
												</Node>
											</Node>
											<Node id="8" defaultChild="16">
												<SimplePredicate field="Education" operator="equal" value="HSgrad"/>
												<Node id="15" score="-0.113620125">
													<SimplePredicate field="float(Age)" operator="lessThan" value="25.999998"/>
												</Node>
												<Node id="16" defaultChild="26">
													<SimplePredicate field="float(Age)" operator="greaterOrEqual" value="25.999998"/>
													<Node id="25" score="-0.03589903">
														<SimplePredicate field="float(Hours)" operator="lessThan" value="41.0"/>
													</Node>
													<Node id="26" score="0.22058329">
														<SimplePredicate field="float(Hours)" operator="greaterOrEqual" value="41.0"/>
													</Node>
												</Node>
											</Node>
										</Node>
										<Node id="4" defaultChild="10">
											<SimplePredicate field="Marital" operator="equal" value="Absent"/>
											<Node id="9" defaultChild="18">
												<SimplePredicate field="float(Hours)" operator="lessThan" value="56.0"/>
												<Node id="17" defaultChild="27">
													<SimplePredicate field="float(Age)" operator="lessThan" value="26.999998"/>
													<Node id="27" score="-0.28680006">
														<SimplePredicate field="Occupation" operator="notEqual" value="Cleaner"/>
													</Node>
													<Node id="28" score="-0.07019043">
														<SimplePredicate field="Occupation" operator="equal" value="Cleaner"/>
													</Node>
												</Node>
												<Node id="18" score="-0.03278219">
													<SimplePredicate field="float(Age)" operator="greaterOrEqual" value="26.999998"/>
												</Node>
											</Node>
											<Node id="10" score="-0.025182297">
												<SimplePredicate field="float(Hours)" operator="greaterOrEqual" value="56.0"/>
											</Node>
										</Node>
									</Node>
									<Node id="2" defaultChild="6">
										<SimplePredicate field="float(Age)" operator="greaterOrEqual" value="27.999998"/>
										<Node id="5" defaultChild="11">
											<SimplePredicate field="float(Deductions)" operator="lessThan" value="1564.0"/>
											<Node id="11" defaultChild="20">
												<SimplePredicate field="Occupation" operator="notEqual" value="Protective"/>
												<Node id="19" defaultChild="29">
													<SimplePredicate field="float(Deductions)" operator="lessThan" value="416.66666"/>
													<Node id="29" defaultChild="33">
														<SimplePredicate field="Occupation" operator="notEqual" value="Service"/>
														<Node id="33" score="-0.0040504597">
															<SimplePredicate field="Occupation" operator="notEqual" value="Cleaner"/>
														</Node>
														<Node id="34" score="-0.19824617">
															<SimplePredicate field="Occupation" operator="equal" value="Cleaner"/>
														</Node>
													</Node>
													<Node id="30" defaultChild="35">
														<SimplePredicate field="Occupation" operator="equal" value="Service"/>
														<Node id="35" score="-0.24963538">
															<SimplePredicate field="Marital" operator="notEqual" value="Married"/>
														</Node>
														<Node id="36" score="-0.10647312">
															<SimplePredicate field="Marital" operator="equal" value="Married"/>
														</Node>
													</Node>
												</Node>
												<Node id="20" score="-0.2721976">
													<SimplePredicate field="float(Deductions)" operator="greaterOrEqual" value="416.66666"/>
												</Node>
											</Node>
											<Node id="12" defaultChild="21">
												<SimplePredicate field="Occupation" operator="equal" value="Protective"/>
												<Node id="21" score="0.30680376">
													<SimplePredicate field="Education" operator="notEqual" value="HSgrad"/>
												</Node>
												<Node id="22" score="-0.08351685">
													<SimplePredicate field="Education" operator="equal" value="HSgrad"/>
												</Node>
											</Node>
										</Node>
